hello -0.38497 0.80092 0.064106 -0.28355 -0.026759 -0.34532 -0.64253 -0.11729 -0.33257 0.55243 -0.087813 0.9035 0.47102 0.56657 0.6985 -0.35229 -0.86542 0.90573 0.03576 -0.071705 -0.12327 0.54923 0.47005 0.35572 1.2611 -0.67581 -0.94983 0.68666 0.3871 -1.3492 0.63512 0.46416 -0.48814 0.83827 -0.9246 -0.33722 0.53741 -1.0616 -0.081403 -0.67111 0.30923 -0.3923 -0.55002 -0.68827 0.58049 -0.11626 0.013139 -0.57654 0.048833 0.67204
meet 0.19407 1.0995 0.13911 0.25319 0.17659 -0.68853 -0.37309 0.53593 -0.43564 -0.65232 0.060044 0.204 -0.35863 0.31886 0.76505 0.90403 0.377 -0.25786 0.63091 -0.60901 0.32388 0.08707 0.1044 0.13865 0.098177 -1.4341 0.59319 -0.34999 -0.72063 0.25077 2.9303 1.0349 -1.2752 0.019591 0.49495 -0.34747 0.064409 0.47355 -0.20129 -0.31933 -0.60984 0.18292 0.39434 -0.71214 0.43651 0.40645 -0.16597 0.43628 -0.15019 0.095135
nice 0.20189 0.80606 -1.1281 -0.59593 0.52756 -0.4769 -0.5264 0.14526 -0.86087 0.56199 -0.43708 -0.16586 -0.23328 -0.21726 0.52114 0.062307 0.55115 -0.18002 -0.32983 -0.94434 -0.62019 0.78764 -0.36133 0.6858 0.3791 -0.87744 -0.76792 1.2885 1.142 -0.73489 2.3932 1.0967 -0.48686 0.5284 0.3927 -0.056427 0.29632 1.0798 0.45157 -0.98115 1.0037 0.15634 0.022584 -0.14832 -0.092933 0.33691 0.42171 -0.21642 1.0139 1.0535
to 0.68047 -0.039263 0.30186 -0.17792 0.42962 0.032246 -0.41376 0.13228 -0.29847 -0.085253 0.17118 0.22419 -0.10046 -0.43653 0.33418 0.67846 0.057204 -0.34448 -0.42785 -0.43275 0.55963 0.10032 0.18677 -0.26854 0.037334 -2.0932 0.22171 -0.39868 0.20912 -0.55725 3.8826 0.47466 -0.95658 -0.37788 0.20869 -0.32752 0.12751 0.088359 0.16351 -0.21634 -0.094375 0.018324 0.21048 -0.03088 -0.19722 0.082279 -0.09434 -0.073297 -0.064699 -0.26044
world -0.41486 0.71848 -0.3045 0.87445 0.22441 -0.56488 -0.37566 -0.44801 0.61347 -0.11359 0.74556 -0.10598 -1.1882 0.50974 1.3511 0.069851 0.73314 0.26773 -1.1787 -0.148 0.039853 0.033107 -0.27406 0.25125 0.41507 -1.6188 -0.81778 -0.73892 -0.28997 0.57277 3.4719 0.73817 -0.044495 -0.15119 -0.93503 -0.13152 -0.28562 0.76327 -0.83332 -0.6793 -0.39099 -0.64466 1.0044 -0.2051 0.46799 0.99314 -0.16221 -0.46022 -0.37639 -0.67542
you -0.0010919 0.33324 0.35743 -0.54041 0.82032 -0.49391 -0.32588 0.0019972 -0.23829 0.35554 -0.60655 0.98932 -0.21786 0.11236 1.1494 0.73284 0.51182 0.29287 0.28388 -1.359 -0.37951 0.50943 0.7071 0.62941 1.0534 -2.1756 -1.3204 0.40001 1.5741 -1.66 3.7721 0.86949 -0.80439 0.1839 -0.34332 0.010714 0.23969 0.066748 0.70117 -0.73702 0.20877 0.11564 -0.1519 0.85908 0.2262 0.16519 0.36309 -0.45697 -0.048969 1.1316
